digraph Tree {
node [shape=box, style="filled, rounded", color="black", fontname=helvetica] ;
edge [fontname=helvetica] ;
0 [label=<Career &le; 0.5<br/>entropy = 0.9457<br/>samples = 11<br/>value = [7, 4]<br/>class = Low>, fillcolor="#e581396d"] ;
1 [label=<Education Level &le; 0.5<br/>entropy = 0.971<br/>samples = 5<br/>value = [2, 3]<br/>class = High>, fillcolor="#399de555"] ;
0 -> 1 [labeldistance=2.5, labelangle=45, headlabel="True"] ;
2 [label=<Exp &le; 1.5<br/>entropy = 0.9183<br/>samples = 3<br/>value = [2, 1]<br/>class = Low>, fillcolor="#e581397f"] ;
1 -> 2 ;
3 [label=<entropy = 0.0<br/>samples = 2<br/>value = [2, 0]<br/>class = Low>, fillcolor="#e58139ff"] ;
2 -> 3 ;
4 [label=<entropy = 0.0<br/>samples = 1<br/>value = [0, 1]<br/>class = High>, fillcolor="#399de5ff"] ;
2 -> 4 ;
5 [label=<entropy = 0.0<br/>samples = 2<br/>value = [0, 2]<br/>class = High>, fillcolor="#399de5ff"] ;
1 -> 5 ;
6 [label=<Location &le; 0.5<br/>entropy = 0.65<br/>samples = 6<br/>value = [5, 1]<br/>class = Low>, fillcolor="#e58139cc"] ;
0 -> 6 [labeldistance=2.5, labelangle=-45, headlabel="False"] ;
7 [label=<entropy = 0.0<br/>samples = 3<br/>value = [3, 0]<br/>class = Low>, fillcolor="#e58139ff"] ;
6 -> 7 ;
8 [label=<Education Level &le; 0.5<br/>entropy = 0.9183<br/>samples = 3<br/>value = [2, 1]<br/>class = Low>, fillcolor="#e581397f"] ;
6 -> 8 ;
9 [label=<entropy = 0.0<br/>samples = 2<br/>value = [2, 0]<br/>class = Low>, fillcolor="#e58139ff"] ;
8 -> 9 ;
10 [label=<entropy = 0.0<br/>samples = 1<br/>value = [0, 1]<br/>class = High>, fillcolor="#399de5ff"] ;
8 -> 10 ;
}